<?xml version="1.0"?>
<opencv_storage>
<cascades type_id="opencv-haar-classifier">
  <size>
    16 16</size>
  <stages>
    <_>
      <!-- stage 0 -->
      <trees>
        <_>
          <!-- tree 0 -->
          <_>
            <!-- root node -->
            <feature>
              <rects>
                <_>
                  5 0 6 2 -1.</_>
                <_>
                  5 1 6 1 2.</_></rects>
              <tilted>0</tilted></feature>
            <threshold>-9.2484559863805771e-03</threshold>
            <left_val>0.7375689744949341</left_val>
            <right_node>1</right_node></_>
          <_>
            <!-- node 1 -->
            <feature>
              <rects>
                <_>
                  4 0 8 3 -1.</_>
                <_>
                  4 1 8 1 3.</_></rects>
              <tilted>0</tilted></feature>
            <threshold>0.0115435803309083</threshold>
            <left_val>-0.7050735950469971</left_val>
            <right_val>0.1662625074386597</right_val></_></_>
        <_>
          <!-- tree 1 -->
          <_>
            <!-- root node -->
            <feature>
              <rects>
                <_>
                  0 5 4 4 -1.</_>
                <_>
                  2 5 2 4 2.</_></rects>
              <tilted>0</tilted></feature>
            <threshold>-0.0161411706358194</threshold>
            <left_val>0.5546848773956299</left_val>
            <right_node>1</right_node></_>
          <_>
            <!-- node 1 -->
            <feature>
              <rects>
                <_>
                  4 8 7 6 -1.</_>
                <_>
                  4 10 7 2 3.</_></rects>
              <tilted>0</tilted></feature>
            <threshold>0.0153978504240513</threshold>
            <left_val>-0.6266968250274658</left_val>
            <right_val>0.0661377906799316</right_val></_></_>
        <_>
          <!-- tree 2 -->
          <_>
            <!-- root node -->
            <feature>
              <rects>
                <_>
                  12 7 4 2 -1.</_>
                <_>
                  14 7 2 2 2.</_></rects>
              <tilted>0</tilted></feature>
            <threshold>8.9671527966856956e-03</threshold>
            <left_node>1</left_node>
            <right_val>0.4310910999774933</right_val></_>
          <_>
            <!-- node 1 -->
            <feature>
              <rects>
                <_>
                  2 12 8 4 -1.</_>
                <_>
                  2 12 4 2 2.</_>
                <_>
                  6 14 4 2 2.</_></rects>
              <tilted>0</tilted></feature>
            <threshold>-0.0132094295695424</threshold>
            <left_val>0.2287819981575012</left_val>
            <right_val>-0.4966993927955627</right_val></_></_>
        <_>
          <!-- tree 3 -->
          <_>
            <!-- root node -->
            <feature>
              <rects>
                <_>
                  3 3 1 2 -1.</_>
                <_>
                  3 4 1 1 2.</_></rects>
              <tilted>0</tilted></feature>
            <threshold>-6.9362620706669986e-05</threshold>
            <left_val>0.3048537969589233</left_val>
            <right_node>1</right_node></_>
          <_>
            <!-- node 1 -->
            <feature>
              <rects>
                <_>
                  3 3 1 2 -1.</_>
                <_>
                  3 4 1 1 2.</_></rects>
              <tilted>0</tilted></feature>
            <threshold>3.4889981179730967e-05</threshold>
            <left_val>-0.7683851122856140</left_val>
            <right_val>-0.0381583906710148</right_val></_></_>
        <_>
          <!-- tree 4 -->
          <_>
            <!-- root node -->
            <feature>
              <rects>
                <_>
                  8 2 6 4 -1.</_>
                <_>
                  8 2 3 2 2.</_>
                <_>
                  11 4 3 2 2.</_></rects>
              <tilted>0</tilted></feature>
            <threshold>-0.0123544698581100</threshold>
            <left_val>0.3686161041259766</left_val>
            <right_node>1</right_node></_>
          <_>
            <!-- node 1 -->
            <feature>
              <rects>
                <_>
                  4 0 9 2 -1.</_>
                <_>
                  4 1 9 1 2.</_></rects>
              <tilted>0</tilted></feature>
            <threshold>0.0128260403871536</threshold>
            <left_val>-0.4031786024570465</left_val>
            <right_val>0.3803235888481140</right_val></_></_>
        <_>
          <!-- tree 5 -->
          <_>
            <!-- root node -->
            <feature>
              <rects>
                <_>
                  10 12 6 4 -1.</_>
                <_>
                  10 14 6 2 2.</_></rects>
              <tilted>0</tilted></feature>
            <threshold>0.0145723903551698</threshold>
            <left_node>1</left_node>
            <right_val>0.3903292119503021</right_val></_>
          <_>
            <!-- node 1 -->
            <feature>
              <rects>
                <_>
                  7 8 7 2 -1.</_>
                <_>
                  7 9 7 1 2.</_></rects>
              <tilted>0</tilted></feature>
            <threshold>5.5553638376295567e-03</threshold>
            <left_val>-0.3582453131675720</left_val>
            <right_val>0.2362314015626907</right_val></_></_>
        <_>
          <!-- tree 6 -->
          <_>
            <!-- root node -->
            <feature>
              <rects>
                <_>
                  2 0 4 2 -1.</_>
                <_>
                  2 0 2 1 2.</_>
                <_>
                  4 1 2 1 2.</_></rects>
              <tilted>0</tilted></feature>
            <threshold>-3.2671811059117317e-03</threshold>
            <left_val>0.4197485148906708</left_val>
            <right_node>1</right_node></_>
          <_>
            <!-- node 1 -->
            <feature>
              <rects>
                <_>
                  2 1 6 2 -1.</_>
                <_>
                  2 1 3 1 2.</_>
                <_>
                  5 2 3 1 2.</_></rects>
              <tilted>0</tilted></feature>
            <threshold>-2.9295450076460838e-03</threshold>
            <left_val>0.2179256975650787</left_val>
            <right_val>-0.3381305038928986</right_val></_></_></trees>
      <stage_threshold>-1.6953799724578857</stage_threshold>
      <parent>-1</parent>
      <next>-1</next></_>
    <_>
      <!-- stage 1 -->
      <trees>
        <_>
          <!-- tree 0 -->
          <_>
            <!-- root node -->
            <feature>
              <rects>
                <_>
                  4 0 7 2 -1.</_>
                <_>
                  4 1 7 1 2.</_></rects>
              <tilted>0</tilted></feature>
            <threshold>-0.0148992100730538</threshold>
            <left_node>1</left_node>
            <right_val>-0.4465456008911133</right_val></_>
          <_>
            <!-- node 1 -->
            <feature>
              <rects>
                <_>
                  2 1 12 1 -1.</_>
                <_>
                  6 1 4 1 3.</_></rects>
              <tilted>0</tilted></feature>
            <threshold>-0.0108616100624204</threshold>
            <left_val>0.8152189850807190</left_val>
            <right_val>-0.3672704994678497</right_val></_></_>
        <_>
          <!-- tree 1 -->
          <_>
            <!-- root node -->
            <feature>
              <rects>
                <_>
                  0 5 4 7 -1.</_>
                <_>
                  2 5 2 7 2.</_></rects>
              <tilted>0</tilted></feature>
            <threshold>-0.0275314897298813</threshold>
            <left_node>1</left_node>
            <right_val>-0.2770746052265167</right_val></_>
          <_>
            <!-- node 1 -->
            <feature>
              <rects>
                <_>
                  2 0 11 12 -1.</_>
                <_>
                  2 4 11 4 3.</_></rects>
              <tilted>0</tilted></feature>
            <threshold>-0.1236426979303360</threshold>
            <left_val>0.7914918065071106</left_val>
            <right_val>-2.2632810287177563e-03</right_val></_></_>
        <_>
          <!-- tree 2 -->
          <_>
            <!-- root node -->
            <feature>
              <rects>
                <_>
                  12 4 4 12 -1.</_>
                <_>
                  14 4 2 12 2.</_></rects>
              <tilted>0</tilted></feature>
            <threshold>0.0721357017755508</threshold>
            <left_node>1</left_node>
            <right_val>0.4794872105121613</right_val></_>
          <_>
            <!-- node 1 -->
            <feature>
              <rects>
                <_>
                  3 5 11 6 -1.</_>
                <_>
                  3 7 11 2 3.</_></rects>
              <tilted>0</tilted></feature>
            <threshold>-0.0213551092892885</threshold>
            <left_val>0.2087928950786591</left_val>
            <right_val>-0.4016984999179840</right_val></_></_>
        <_>
          <!-- tree 3 -->
          <_>
            <!-- root node -->
            <feature>
              <rects>
                <_>
                  4 0 2 2 -1.</_>
                <_>
                  4 1 2 1 2.</_></rects>
              <tilted>0</tilted></feature>
            <threshold>5.1185018382966518e-03</threshold>
            <left_node>1</left_node>
            <right_val>0.4984407126903534</right_val></_>
          <_>
            <!-- node 1 -->
            <feature>
              <rects>
                <_>
                  4 2 9 10 -1.</_>
                <_>
                  4 7 9 5 2.</_></rects>
              <tilted>0</tilted></feature>
            <threshold>0.0673503205180168</threshold>
            <left_val>-0.3825811147689819</left_val>
            <right_val>0.2137984931468964</right_val></_></_>
        <_>
          <!-- tree 4 -->
          <_>
            <!-- root node -->
            <feature>
              <rects>
                <_>
                  2 4 1 2 -1.</_>
                <_>
                  2 5 1 1 2.</_></rects>
              <tilted>0</tilted></feature>
            <threshold>-6.1355720390565693e-05</threshold>
            <left_val>0.2696563005447388</left_val>
            <right_node>1</right_node></_>
          <_>
            <!-- node 1 -->
            <feature>
              <rects>
                <_>
                  11 2 1 2 -1.</_>
                <_>
                  11 3 1 1 2.</_></rects>
              <tilted>0</tilted></feature>
            <threshold>-8.5446823504753411e-05</threshold>
            <left_val>7.2073619812726974e-03</left_val>
            <right_val>-0.5612040758132935</right_val></_></_>
        <_>
          <!-- tree 5 -->
          <_>
            <!-- root node -->
            <feature>
              <rects>
                <_>
                  1 12 15 4 -1.</_>
                <_>
                  1 14 15 2 2.</_></rects>
              <tilted>0</tilted></feature>
            <threshold>0.0420867688953876</threshold>
            <left_node>1</left_node>
            <right_val>0.4122591912746429</right_val></_>
          <_>
            <!-- node 1 -->
            <feature>
              <rects>
                <_>
                  5 10 8 6 -1.</_>
                <_>
                  5 13 8 3 2.</_></rects>
              <tilted>0</tilted></feature>
            <threshold>-0.0388651601970196</threshold>
            <left_val>0.2279727011919022</left_val>
            <right_val>-0.3478131890296936</right_val></_></_>
        <_>
          <!-- tree 6 -->
          <_>
            <!-- root node -->
            <feature>
              <rects>
                <_>
                  6 6 1 2 -1.</_>
                <_>
                  6 7 1 1 2.</_></rects>
              <tilted>0</tilted></feature>
            <threshold>-3.1403029424836859e-05</threshold>
            <left_val>0.2655873000621796</left_val>
            <right_node>1</right_node></_>
          <_>
            <!-- node 1 -->
            <feature>
              <rects>
                <_>
                  4 2 1 2 -1.</_>
                <_>
                  4 3 1 1 2.</_></rects>
              <tilted>0</tilted></feature>
            <threshold>-8.3635532064363360e-05</threshold>
            <left_val>0.0579858198761940</left_val>
            <right_val>-0.5443245172500610</right_val></_></_>
        <_>
          <!-- tree 7 -->
          <_>
            <!-- root node -->
            <feature>
              <rects>
                <_>
                  6 0 3 6 -1.</_>
                <_>
                  7 0 1 6 3.</_></rects>
              <tilted>0</tilted></feature>
            <threshold>-0.0122649399563670</threshold>
            <left_val>-0.6997405290603638</left_val>
            <right_node>1</right_node></_>
          <_>
            <!-- node 1 -->
            <feature>
              <rects>
                <_>
                  7 3 3 2 -1.</_>
                <_>
                  8 3 1 2 3.</_></rects>
              <tilted>0</tilted></feature>
            <threshold>-5.6637641973793507e-03</threshold>
            <left_val>-0.6492617130279541</left_val>
            <right_val>0.1367232054471970</right_val></_></_>
        <_>
          <!-- tree 8 -->
          <_>
            <!-- root node -->
            <feature>
              <rects>
                <_>
                  6 0 3 6 -1.</_>
                <_>
                  6 2 3 2 3.</_></rects>
              <tilted>0</tilted></feature>
            <threshold>-0.0116063598543406</threshold>
            <left_val>0.2528806924819946</left_val>
            <right_node>1</right_node></_>
          <_>
            <!-- node 1 -->
            <feature>
              <rects>
                <_>
                  7 0 5 6 -1.</_>
                <_>
                  7 2 5 2 3.</_></rects>
              <tilted>0</tilted></feature>
            <threshold>0.0174417607486248</threshold>
            <left_val>-0.4071537852287292</left_val>
            <right_val>0.1466235965490341</right_val></_></_>
        <_>
          <!-- tree 9 -->
          <_>
            <!-- root node -->
            <feature>
              <rects>
                <_>
                  1 2 15 13 -1.</_>
                <_>
                  6 2 5 13 3.</_></rects>
              <tilted>0</tilted></feature>
            <threshold>-0.3863778114318848</threshold>
            <left_val>0.3916392922401428</left_val>
            <right_node>1</right_node></_>
          <_>
            <!-- node 1 -->
            <feature>
              <rects>
                <_>
                  12 8 4 3 -1.</_>
                <_>
                  14 8 2 3 2.</_></rects>
              <tilted>0</tilted></feature>
            <threshold>-0.0163234807550907</threshold>
            <left_val>0.3162438869476318</left_val>
            <right_val>-0.2743476927280426</right_val></_></_>
        <_>
          <!-- tree 10 -->
          <_>
            <!-- root node -->
            <feature>
              <rects>
                <_>
                  8 0 3 9 -1.</_>
                <_>
                  9 0 1 9 3.</_></rects>
              <tilted>0</tilted></feature>
            <threshold>-0.0198510494083166</threshold>
            <left_val>-0.7428560256958008</left_val>
            <right_node>1</right_node></_>
          <_>
            <!-- node 1 -->
            <feature>
              <rects>
                <_>
                  9 1 3 7 -1.</_>
                <_>
                  10 1 1 7 3.</_></rects>
              <tilted>0</tilted></feature>
            <threshold>-0.0212077200412750</threshold>
            <left_val>-0.7502173185348511</left_val>
            <right_val>0.1051737964153290</right_val></_></_>
        <_>
          <!-- tree 11 -->
          <_>
            <!-- root node -->
            <feature>
              <rects>
                <_>
                  11 1 2 2 -1.</_>
                <_>
                  11 1 1 1 2.</_>
                <_>
                  12 2 1 1 2.</_></rects>
              <tilted>0</tilted></feature>
            <threshold>5.1277590682730079e-04</threshold>
            <left_node>1</left_node>
            <right_val>0.2374116927385330</right_val></_>
          <_>
            <!-- node 1 -->
            <feature>
              <rects>
                <_>
                  11 1 2 2 -1.</_>
                <_>
                  11 1 1 1 2.</_>
                <_>
                  12 2 1 1 2.</_></rects>
              <tilted>0</tilted></feature>
            <threshold>-7.1180911618284881e-05</threshold>
            <left_val>-3.4924980718642473e-03</left_val>
            <right_val>-0.5147354006767273</right_val></_></_></trees>
      <stage_threshold>-1.4431829452514648</stage_threshold>
      <parent>0</parent>
      <next>-1</next></_>
    <_>
      <!-- stage 2 -->
      <trees>
        <_>
          <!-- tree 0 -->
          <_>
            <!-- root node -->
            <feature>
              <rects>
                <_>
                  5 0 7 2 -1.</_>
                <_>
                  5 1 7 1 2.</_></rects>
              <tilted>0</tilted></feature>
            <threshold>-0.0176965799182653</threshold>
            <left_node>1</left_node>
            <right_val>-0.3892407119274139</right_val></_>
          <_>
            <!-- node 1 -->
            <feature>
              <rects>
                <_>
                  2 1 12 1 -1.</_>
                <_>
                  6 1 4 1 3.</_></rects>
              <tilted>0</tilted></feature>
            <threshold>-6.2620150856673717e-03</threshold>
            <left_val>0.7388290762901306</left_val>
            <right_val>-0.5078247785568237</right_val></_></_>
        <_>
          <!-- tree 1 -->
          <_>
            <!-- root node -->
            <feature>
              <rects>
                <_>
                  0 4 4 9 -1.</_>
                <_>
                  2 4 2 9 2.</_></rects>
              <tilted>0</tilted></feature>
            <threshold>-0.0594290308654308</threshold>
            <left_val>0.5158463716506958</left_val>
            <right_node>1</right_node></_>
          <_>
            <!-- node 1 -->
            <feature>
              <rects>
                <_>
                  2 7 11 4 -1.</_>
                <_>
                  2 9 11 2 2.</_></rects>
              <tilted>0</tilted></feature>
            <threshold>0.0266665201634169</threshold>
            <left_val>-0.4278106987476349</left_val>
            <right_val>0.0803161263465881</right_val></_></_>
        <_>
          <!-- tree 2 -->
          <_>
            <!-- root node -->
            <feature>
              <rects>
                <_>
                  10 3 6 8 -1.</_>
                <_>
                  13 3 3 8 2.</_></rects>
              <tilted>0</tilted></feature>
            <threshold>0.1167422980070114</threshold>
            <left_node>1</left_node>
            <right_val>0.4870189130306244</right_val></_>
          <_>
            <!-- node 1 -->
            <feature>
              <rects>
                <_>
                  4 0 8 2 -1.</_>
                <_>
                  4 1 8 1 2.</_></rects>
              <tilted>0</tilted></feature>
            <threshold>0.0265629105269909</threshold>
            <left_val>-0.2720879018306732</left_val>
            <right_val>0.4879609942436218</right_val></_></_>
        <_>
          <!-- tree 3 -->
          <_>
            <!-- root node -->
            <feature>
              <rects>
                <_>
                  2 1 12 15 -1.</_>
                <_>
                  2 6 12 5 3.</_></rects>
              <tilted>0</tilted></feature>
            <threshold>-0.3621714115142822</threshold>
            <left_val>0.4985517859458923</left_val>
            <right_node>1</right_node></_>
          <_>
            <!-- node 1 -->
            <feature>
              <rects>
                <_>
                  6 2 7 10 -1.</_>
                <_>
                  6 7 7 5 2.</_></rects>
              <tilted>0</tilted></feature>
            <threshold>0.0921771824359894</threshold>
            <left_val>-0.3244144916534424</left_val>
            <right_val>0.2849569916725159</right_val></_></_>
        <_>
          <!-- tree 4 -->
          <_>
            <!-- root node -->
            <feature>
              <rects>
                <_>
                  6 0 5 6 -1.</_>
                <_>
                  6 2 5 2 3.</_></rects>
              <tilted>0</tilted></feature>
            <threshold>-0.0175751391798258</threshold>
            <left_val>0.2725538909435272</left_val>
            <right_node>1</right_node></_>
          <_>
            <!-- node 1 -->
            <feature>
              <rects>
                <_>
                  5 1 10 6 -1.</_>
                <_>
                  5 1 5 3 2.</_>
                <_>
                  10 4 5 3 2.</_></rects>
              <tilted>0</tilted></feature>
            <threshold>0.0371985398232937</threshold>
            <left_val>-0.3444587886333466</left_val>
            <right_val>0.2207686007022858</right_val></_></_>
        <_>
          <!-- tree 5 -->
          <_>
            <!-- root node -->
            <feature>
              <rects>
                <_>
                  3 3 1 2 -1.</_>
                <_>
                  3 4 1 1 2.</_></rects>
              <tilted>0</tilted></feature>
            <threshold>-6.1009068303974345e-05</threshold>
            <left_val>0.1428117007017136</left_val>
            <right_node>1</right_node></_>
          <_>
            <!-- node 1 -->
            <feature>
              <rects>
                <_>
                  0 2 6 5 -1.</_>
                <_>
                  3 2 3 5 2.</_></rects>
              <tilted>0</tilted></feature>
            <threshold>0.0510060004889965</threshold>
            <left_val>-0.4138947129249573</left_val>
            <right_val>0.2793026864528656</right_val></_></_>
        <_>
          <!-- tree 6 -->
          <_>
            <!-- root node -->
            <feature>
              <rects>
                <_>
                  5 0 6 5 -1.</_>
                <_>
                  7 0 2 5 3.</_></rects>
              <tilted>0</tilted></feature>
            <threshold>-0.0529403686523438</threshold>
            <left_val>-0.7732747197151184</left_val>
            <right_node>1</right_node></_>
          <_>
            <!-- node 1 -->
            <feature>
              <rects>
                <_>
                  6 0 2 3 -1.</_>
                <_>
                  7 0 1 3 2.</_></rects>
              <tilted>0</tilted></feature>
            <threshold>5.4052770137786865e-03</threshold>
            <left_val>0.1474249064922333</left_val>
            <right_val>-0.5025901198387146</right_val></_></_>
        <_>
          <!-- tree 7 -->
          <_>
            <!-- root node -->
            <feature>
              <rects>
                <_>
                  2 14 14 2 -1.</_>
                <_>
                  2 15 14 1 2.</_></rects>
              <tilted>0</tilted></feature>
            <threshold>0.0125631298869848</threshold>
            <left_node>1</left_node>
            <right_val>0.3286187052726746</right_val></_>
          <_>
            <!-- node 1 -->
            <feature>
              <rects>
                <_>
                  5 11 7 4 -1.</_>
                <_>
                  5 13 7 2 2.</_></rects>
              <tilted>0</tilted></feature>
            <threshold>-9.0853460133075714e-03</threshold>
            <left_val>0.1247631013393402</left_val>
            <right_val>-0.3475618064403534</right_val></_></_>
        <_>
          <!-- tree 8 -->
          <_>
            <!-- root node -->
            <feature>
              <rects>
                <_>
                  12 3 1 2 -1.</_>
                <_>
                  12 4 1 1 2.</_></rects>
              <tilted>0</tilted></feature>
            <threshold>-3.1403029424836859e-05</threshold>
            <left_val>0.2001664936542511</left_val>
            <right_node>1</right_node></_>
          <_>
            <!-- node 1 -->
            <feature>
              <rects>
                <_>
                  10 4 6 2 -1.</_>
                <_>
                  13 4 3 2 2.</_></rects>
              <tilted>0</tilted></feature>
            <threshold>-0.0190212801098824</threshold>
            <left_val>0.3084450960159302</left_val>
            <right_val>-0.4474788904190063</right_val></_></_>
        <_>
          <!-- tree 9 -->
          <_>
            <!-- root node -->
            <feature>
              <rects>
                <_>
                  1 2 4 2 -1.</_>
                <_>
                  3 2 2 2 2.</_></rects>
              <tilted>0</tilted></feature>
            <threshold>-0.0109732896089554</threshold>
            <left_val>0.2492666989564896</left_val>
            <right_node>1</right_node></_>
          <_>
            <!-- node 1 -->
            <feature>
              <rects>
                <_>
                  2 1 2 4 -1.</_>
                <_>
                  2 3 2 2 2.</_></rects>
              <tilted>0</tilted></feature>
            <threshold>4.3607051484286785e-03</threshold>
            <left_val>-0.3160490989685059</left_val>
            <right_val>0.2369863986968994</right_val></_></_>
        <_>
          <!-- tree 10 -->
          <_>
            <!-- root node -->
            <feature>
              <rects>
                <_>
                  13 0 3 2 -1.</_>
                <_>
                  13 1 3 1 2.</_></rects>
              <tilted>0</tilted></feature>
            <threshold>-5.7005230337381363e-03</threshold>
            <left_val>-0.4634869098663330</left_val>
            <right_node>1</right_node></_>
          <_>
            <!-- node 1 -->
            <feature>
              <rects>
                <_>
                  3 2 1 3 -1.</_>
                <_>
                  3 3 1 1 3.</_></rects>
              <tilted>0</tilted></feature>
            <threshold>-7.9349367297254503e-05</threshold>
            <left_val>0.2927958965301514</left_val>
            <right_val>-0.1106866002082825</right_val></_></_>
        <_>
          <!-- tree 11 -->
          <_>
            <!-- root node -->
            <feature>
              <rects>
                <_>
                  5 0 3 5 -1.</_>
                <_>
                  6 0 1 5 3.</_></rects>
              <tilted>0</tilted></feature>
            <threshold>0.0130752902477980</threshold>
            <left_node>1</left_node>
            <right_val>-0.6836525797843933</right_val></_>
          <_>
            <!-- node 1 -->
            <feature>
              <rects>
                <_>
                  8 14 8 1 -1.</_>
                <_>
                  12 14 4 1 2.</_></rects>
              <tilted>0</tilted></feature>
            <threshold>0.0143282003700733</threshold>
            <left_val>-0.0882562920451164</left_val>
            <right_val>0.2994110882282257</right_val></_></_>
        <_>
          <!-- tree 12 -->
          <_>
            <!-- root node -->
            <feature>
              <rects>
                <_>
                  3 5 8 6 -1.</_>
                <_>
                  3 7 8 2 3.</_></rects>
              <tilted>0</tilted></feature>
            <threshold>-4.7013341099955142e-04</threshold>
            <left_node>1</left_node>
            <right_val>-0.2702645957469940</right_val></_>
          <_>
            <!-- node 1 -->
            <feature>
              <rects>
                <_>
                  3 4 1 2 -1.</_>
                <_>
                  3 5 1 1 2.</_></rects>
              <tilted>0</tilted></feature>
            <threshold>-3.1638770451536402e-05</threshold>
            <left_val>0.2745948135852814</left_val>
            <right_val>-0.1109383031725883</right_val></_></_>
        <_>
          <!-- tree 13 -->
          <_>
            <!-- root node -->
            <feature>
              <rects>
                <_>
                  11 10 1 2 -1.</_>
                <_>
                  11 11 1 1 2.</_></rects>
              <tilted>0</tilted></feature>
            <threshold>-3.2846928661456332e-05</threshold>
            <left_val>0.1987746953964233</left_val>
            <right_node>1</right_node></_>
          <_>
            <!-- node 1 -->
            <feature>
              <rects>
                <_>
                  10 1 1 6 -1.</_>
                <_>
                  10 4 1 3 2.</_></rects>
              <tilted>0</tilted></feature>
            <threshold>-1.3515839818865061e-03</threshold>
            <left_val>0.0157578792423010</left_val>
            <right_val>-0.4202348887920380</right_val></_></_>
        <_>
          <!-- tree 14 -->
          <_>
            <!-- root node -->
            <feature>
              <rects>
                <_>
                  12 6 3 4 -1.</_>
                <_>
                  13 6 1 4 3.</_></rects>
              <tilted>0</tilted></feature>
            <threshold>-4.7575091011822224e-03</threshold>
            <left_val>0.2319919019937515</left_val>
            <right_node>1</right_node></_>
          <_>
            <!-- node 1 -->
            <feature>
              <rects>
                <_>
                  10 9 6 7 -1.</_>
                <_>
                  12 9 2 7 3.</_></rects>
              <tilted>0</tilted></feature>
            <threshold>0.0327261202037334</threshold>
            <left_val>-0.2890942096710205</left_val>
            <right_val>0.1813215017318726</right_val></_></_>
        <_>
          <!-- tree 15 -->
          <_>
            <!-- root node -->
            <feature>
              <rects>
                <_>
                  10 11 6 2 -1.</_>
                <_>
                  12 11 2 2 3.</_></rects>
              <tilted>0</tilted></feature>
            <threshold>-5.5780331604182720e-03</threshold>
            <left_val>0.1979452073574066</left_val>
            <right_node>1</right_node></_>
          <_>
            <!-- node 1 -->
            <feature>
              <rects>
                <_>
                  2 4 12 8 -1.</_>
                <_>
                  8 4 6 8 2.</_></rects>
              <tilted>0</tilted></feature>
            <threshold>0.3356815874576569</threshold>
            <left_val>-0.2189089953899384</left_val>
            <right_val>0.5913041234016418</right_val></_></_>
        <_>
          <!-- tree 16 -->
          <_>
            <!-- root node -->
            <feature>
              <rects>
                <_>
                  8 3 3 3 -1.</_>
                <_>
                  9 3 1 3 3.</_></rects>
              <tilted>0</tilted></feature>
            <threshold>-0.0113283004611731</threshold>
            <left_val>-0.8108839988708496</left_val>
            <right_node>1</right_node></_>
          <_>
            <!-- node 1 -->
            <feature>
              <rects>
                <_>
                  8 5 2 2 -1.</_>
                <_>
                  9 5 1 2 2.</_></rects>
              <tilted>0</tilted></feature>
            <threshold>1.6730709467083216e-03</threshold>
            <left_val>0.1410108953714371</left_val>
            <right_val>-0.2544785141944885</right_val></_></_></trees>
      <stage_threshold>-1.4465010166168213</stage_threshold>
      <parent>1</parent>
      <next>-1</next></_>
    <_>
      <!-- stage 3 -->
      <trees>
        <_>
          <!-- tree 0 -->
          <_>
            <!-- root node -->
            <feature>
              <rects>
                <_>
                  5 0 6 2 -1.</_>
                <_>
                  5 1 6 1 2.</_></rects>
              <tilted>0</tilted></feature>
            <threshold>-0.0115457400679588</threshold>
            <left_node>1</left_node>
            <right_val>-0.4681799113750458</right_val></_>
          <_>
            <!-- node 1 -->
            <feature>
              <rects>
                <_>
                  0 4 4 5 -1.</_>
                <_>
                  2 4 2 5 2.</_></rects>
              <tilted>0</tilted></feature>
            <threshold>-0.0124798603355885</threshold>
            <left_val>0.7901651263237000</left_val>
            <right_val>-0.0541839785873890</right_val></_></_>
        <_>
          <!-- tree 1 -->
          <_>
            <!-- root node -->
            <feature>
              <rects>
                <_>
                  10 1 2 2 -1.</_>
                <_>
                  10 2 2 1 2.</_></rects>
              <tilted>0</tilted></feature>
            <threshold>-2.2460750769823790e-03</threshold>
            <left_node>1</left_node>
            <right_val>-0.2220299988985062</right_val></_>
          <_>
            <!-- node 1 -->
            <feature>
              <rects>
                <_>
                  11 2 2 1 -1.</_>
                <_>
                  12 2 1 1 2.</_></rects>
              <tilted>0</tilted></feature>
            <threshold>8.3570092101581395e-05</threshold>
            <left_val>-0.2980917096138000</left_val>
            <right_val>0.5314130187034607</right_val></_></_>
        <_>
          <!-- tree 2 -->
          <_>
            <!-- root node -->
            <feature>
              <rects>
                <_>
                  0 1 4 6 -1.</_>
                <_>
                  0 1 2 3 2.</_>
                <_>
                  2 4 2 3 2.</_></rects>
              <tilted>0</tilted></feature>
            <threshold>-0.0112068802118301</threshold>
            <left_val>0.3050597906112671</left_val>
            <right_node>1</right_node></_>
          <_>
            <!-- node 1 -->
            <feature>
              <rects>
                <_>
                  2 12 6 4 -1.</_>
                <_>
                  2 12 3 2 2.</_>
                <_>
                  5 14 3 2 2.</_></rects>
              <tilted>0</tilted></feature>
            <threshold>-0.0171054694801569</threshold>
            <left_val>0.2818410992622375</left_val>
            <right_val>-0.3015111088752747</right_val></_></_>
        <_>
          <!-- tree 3 -->
          <_>
            <!-- root node -->
            <feature>
              <rects>
                <_>
                  9 0 3 2 -1.</_>
                <_>
                  9 1 3 1 2.</_></rects>
              <tilted>0</tilted></feature>
            <threshold>3.5104870330542326e-03</threshold>
            <left_node>1</left_node>
            <right_val>0.3551251888275146</right_val></_>
          <_>
            <!-- node 1 -->
            <feature>
              <rects>
                <_>
                  10 4 6 4 -1.</_>
                <_>
                  12 4 2 4 3.</_></rects>
              <tilted>0</tilted></feature>
            <threshold>-0.0246223900467157</threshold>
            <left_val>0.1324872970581055</left_val>
            <right_val>-0.3429565131664276</right_val></_></_>
        <_>
          <!-- tree 4 -->
          <_>
            <!-- root node -->
            <feature>
              <rects>
                <_>
                  0 0 16 7 -1.</_>
                <_>
                  8 0 8 7 2.</_></rects>
              <tilted>0</tilted></feature>
            <threshold>0.3505800068378448</threshold>
            <left_node>1</left_node>
            <right_val>-0.6458424925804138</right_val></_>
          <_>
            <!-- node 1 -->
            <feature>
              <rects>
                <_>
                  11 1 4 4 -1.</_>
                <_>
                  11 1 2 2 2.</_>
                <_>
                  13 3 2 2 2.</_></rects>
              <tilted>0</tilted></feature>
            <threshold>5.5418848060071468e-03</threshold>
            <left_val>-0.0636602863669395</left_val>
            <right_val>0.3486155867576599</right_val></_></_>
        <_>
          <!-- tree 5 -->
          <_>
            <!-- root node -->
            <feature>
              <rects>
                <_>
                  3 5 8 6 -1.</_>
                <_>
                  3 7 8 2 3.</_></rects>
              <tilted>0</tilted></feature>
            <threshold>-0.0114636998623610</threshold>
            <left_val>0.1622651964426041</left_val>
            <right_node>1</right_node></_>
          <_>
            <!-- node 1 -->
            <feature>
              <rects>
                <_>
                  11 12 4 4 -1.</_>
                <_>
                  11 12 2 2 2.</_>
                <_>
                  13 14 2 2 2.</_></rects>
              <tilted>0</tilted></feature>
            <threshold>-0.0110183199867606</threshold>
            <left_val>0.2822766900062561</left_val>
            <right_val>-0.3438653051853180</right_val></_></_>
        <_>
          <!-- tree 6 -->
          <_>
            <!-- root node -->
            <feature>
              <rects>
                <_>
                  3 1 3 6 -1.</_>
                <_>
                  3 3 3 2 3.</_></rects>
              <tilted>0</tilted></feature>
            <threshold>-3.9011649787425995e-03</threshold>
            <left_val>0.2119778990745544</left_val>
            <right_node>1</right_node></_>
          <_>
            <!-- node 1 -->
            <feature>
              <rects>
                <_>
                  2 0 4 2 -1.</_>
                <_>
                  2 0 2 1 2.</_>
                <_>
                  4 1 2 1 2.</_></rects>
              <tilted>0</tilted></feature>
            <threshold>4.5409509912133217e-03</threshold>
            <left_val>-0.3318836987018585</left_val>
            <right_val>0.3700765073299408</right_val></_></_>
        <_>
          <!-- tree 7 -->
          <_>
            <!-- root node -->
            <feature>
              <rects>
                <_>
                  3 4 10 9 -1.</_>
                <_>
                  8 4 5 9 2.</_></rects>
              <tilted>0</tilted></feature>
            <threshold>0.3009792864322662</threshold>
            <left_node>1</left_node>
            <right_val>0.6648362874984741</right_val></_>
          <_>
            <!-- node 1 -->
            <feature>
              <rects>
                <_>
                  1 12 4 4 -1.</_>
                <_>
                  3 12 2 4 2.</_></rects>
              <tilted>0</tilted></feature>
            <threshold>-0.0139582501724362</threshold>
            <left_val>0.1829960048198700</left_val>
            <right_val>-0.1917708963155746</right_val></_></_>
        <_>
          <!-- tree 8 -->
          <_>
            <!-- root node -->
            <feature>
              <rects>
                <_>
                  9 13 1 2 -1.</_>
                <_>
                  9 14 1 1 2.</_></rects>
              <tilted>0</tilted></feature>
            <threshold>-8.8483946456108242e-05</threshold>
            <left_val>0.1805413067340851</left_val>
            <right_node>1</right_node></_>
          <_>
            <!-- node 1 -->
            <feature>
              <rects>
                <_>
                  9 13 1 2 -1.</_>
                <_>
                  9 14 1 1 2.</_></rects>
              <tilted>0</tilted></feature>
            <threshold>7.6775730121880770e-05</threshold>
            <left_val>-0.6393272876739502</left_val>
            <right_val>-0.0241409596055746</right_val></_></_>
        <_>
          <!-- tree 9 -->
          <_>
            <!-- root node -->
            <feature>
              <rects>
                <_>
                  6 12 3 3 -1.</_>
                <_>
                  7 12 1 3 3.</_></rects>
              <tilted>0</tilted></feature>
            <threshold>-8.2372734323143959e-03</threshold>
            <left_val>-0.6266171932220459</left_val>
            <right_node>1</right_node></_>
          <_>
            <!-- node 1 -->
            <feature>
              <rects>
                <_>
                  11 7 4 8 -1.</_>
                <_>
                  13 7 2 8 2.</_></rects>
              <tilted>0</tilted></feature>
            <threshold>0.0477655008435249</threshold>
            <left_val>-0.0755036994814873</left_val>
            <right_val>0.2830317914485931</right_val></_></_>
        <_>
          <!-- tree 10 -->
          <_>
            <!-- root node -->
            <feature>
              <rects>
                <_>
                  1 10 4 2 -1.</_>
                <_>
                  3 10 2 2 2.</_></rects>
              <tilted>0</tilted></feature>
            <threshold>0.0138374101370573</threshold>
            <left_node>1</left_node>
            <right_val>0.3968456089496613</right_val></_>
          <_>
            <!-- node 1 -->
            <feature>
              <rects>
                <_>
                  4 5 1 2 -1.</_>
                <_>
                  4 6 1 1 2.</_></rects>
              <tilted>0</tilted></feature>
            <threshold>-7.6274998718872666e-05</threshold>
            <left_val>0.0974576771259308</left_val>
            <right_val>-0.2999900877475739</right_val></_></_>
        <_>
          <!-- tree 11 -->
          <_>
            <!-- root node -->
            <feature>
              <rects>
                <_>
                  5 0 8 3 -1.</_>
                <_>
                  5 1 8 1 3.</_></rects>
              <tilted>0</tilted></feature>
            <threshold>-7.1241799741983414e-03</threshold>
            <left_val>0.2495007067918777</left_val>
            <right_node>1</right_node></_>
          <_>
            <!-- node 1 -->
            <feature>
              <rects>
                <_>
                  1 1 8 2 -1.</_>
                <_>
                  1 1 4 1 2.</_>
                <_>
                  5 2 4 1 2.</_></rects>
              <tilted>0</tilted></feature>
            <threshold>-3.4093849826604128e-03</threshold>
            <left_val>0.1585707962512970</left_val>
            <right_val>-0.3717221021652222</right_val></_></_>
        <_>
          <!-- tree 12 -->
          <_>
            <!-- root node -->
            <feature>
              <rects>
                <_>
                  2 12 14 4 -1.</_>
                <_>
                  2 14 14 2 2.</_></rects>
              <tilted>0</tilted></feature>
            <threshold>0.0475077405571938</threshold>
            <left_node>1</left_node>
            <right_val>0.2612431943416595</right_val></_>
          <_>
            <!-- node 1 -->
            <feature>
              <rects>
                <_>
                  1 3 7 12 -1.</_>
                <_>
                  1 7 7 4 3.</_></rects>
              <tilted>0</tilted></feature>
            <threshold>0.0591551400721073</threshold>
            <left_val>-0.2323855012655258</left_val>
            <right_val>0.2392663955688477</right_val></_></_>
        <_>
          <!-- tree 13 -->
          <_>
            <!-- root node -->
            <feature>
              <rects>
                <_>
                  3 4 1 2 -1.</_>
                <_>
                  3 5 1 1 2.</_></rects>
              <tilted>0</tilted></feature>
            <threshold>-6.2833278207108378e-05</threshold>
            <left_val>0.1212693974375725</left_val>
            <right_node>1</right_node></_>
          <_>
            <!-- node 1 -->
            <feature>
              <rects>
                <_>
                  1 1 6 6 -1.</_>
                <_>
                  1 1 3 3 2.</_>
                <_>
                  4 4 3 3 2.</_></rects>
              <tilted>0</tilted></feature>
            <threshold>0.0340612605214119</threshold>
            <left_val>-0.3598763942718506</left_val>
            <right_val>0.3069897890090942</right_val></_></_>
        <_>
          <!-- tree 14 -->
          <_>
            <!-- root node -->
            <feature>
              <rects>
                <_>
                  4 0 8 4 -1.</_>
                <_>
                  8 0 4 4 2.</_></rects>
              <tilted>0</tilted></feature>
            <threshold>-0.0457284487783909</threshold>
            <left_val>-0.3664147853851318</left_val>
            <right_node>1</right_node></_>
          <_>
            <!-- node 1 -->
            <feature>
              <rects>
                <_>
                  0 0 1 3 -1.</_>
                <_>
                  0 1 1 1 3.</_></rects>
              <tilted>0</tilted></feature>
            <threshold>-1.8098610453307629e-03</threshold>
            <left_val>-0.3240767121315002</left_val>
            <right_val>0.1447511017322540</right_val></_></_>
        <_>
          <!-- tree 15 -->
          <_>
            <!-- root node -->
            <feature>
              <rects>
                <_>
                  13 7 3 5 -1.</_>
                <_>
                  14 7 1 5 3.</_></rects>
              <tilted>0</tilted></feature>
            <threshold>-7.8227780759334564e-03</threshold>
            <left_val>0.2659564912319183</left_val>
            <right_node>1</right_node></_>
          <_>
            <!-- node 1 -->
            <feature>
              <rects>
                <_>
                  13 6 3 6 -1.</_>
                <_>
                  14 6 1 6 3.</_></rects>
              <tilted>0</tilted></feature>
            <threshold>3.0824409332126379e-03</threshold>
            <left_val>-0.3448928892612457</left_val>
            <right_val>0.1159593015909195</right_val></_></_>
        <_>
          <!-- tree 16 -->
          <_>
            <!-- root node -->
            <feature>
              <rects>
                <_>
                  10 5 2 6 -1.</_>
                <_>
                  10 7 2 2 3.</_></rects>
              <tilted>0</tilted></feature>
            <threshold>-7.1113892772700638e-05</threshold>
            <left_val>0.1279823035001755</left_val>
            <right_node>1</right_node></_>
          <_>
            <!-- node 1 -->
            <feature>
              <rects>
                <_>
                  11 6 2 2 -1.</_>
                <_>
                  11 6 1 1 2.</_>
                <_>
                  12 7 1 1 2.</_></rects>
              <tilted>0</tilted></feature>
            <threshold>-8.2635211583692580e-05</threshold>
            <left_val>0.0228006597608328</left_val>
            <right_val>-0.4616191089153290</right_val></_></_>
        <_>
          <!-- tree 17 -->
          <_>
            <!-- root node -->
            <feature>
              <rects>
                <_>
                  2 1 4 4 -1.</_>
                <_>
                  2 1 2 2 2.</_>
                <_>
                  4 3 2 2 2.</_></rects>
              <tilted>0</tilted></feature>
            <threshold>-0.0189669691026211</threshold>
            <left_val>0.4439077973365784</left_val>
            <right_node>1</right_node></_>
          <_>
            <!-- node 1 -->
            <feature>
              <rects>
                <_>
                  1 3 2 1 -1.</_>
                <_>
                  2 3 1 1 2.</_></rects>
              <tilted>0</tilted></feature>
            <threshold>-7.7021351899020374e-05</threshold>
            <left_val>0.1121814996004105</left_val>
            <right_val>-0.2964642047882080</right_val></_></_>
        <_>
          <!-- tree 18 -->
          <_>
            <!-- root node -->
            <feature>
              <rects>
                <_>
                  12 2 2 4 -1.</_>
                <_>
                  12 2 1 2 2.</_>
                <_>
                  13 4 1 2 2.</_></rects>
              <tilted>0</tilted></feature>
            <threshold>-5.1848930306732655e-03</threshold>
            <left_val>0.3436178863048553</left_val>
            <right_node>1</right_node></_>
          <_>
            <!-- node 1 -->
            <feature>
              <rects>
                <_>
                  12 3 2 2 -1.</_>
                <_>
                  12 3 1 1 2.</_>
                <_>
                  13 4 1 1 2.</_></rects>
              <tilted>0</tilted></feature>
            <threshold>7.0602109190076590e-05</threshold>
            <left_val>-0.2638272941112518</left_val>
            <right_val>0.0804060399532318</right_val></_></_>
        <_>
          <!-- tree 19 -->
          <_>
            <!-- root node -->
            <feature>
              <rects>
                <_>
                  7 0 3 8 -1.</_>
                <_>
                  8 0 1 8 3.</_></rects>
              <tilted>0</tilted></feature>
            <threshold>-0.0176689997315407</threshold>
            <left_val>-0.6855626106262207</left_val>
            <right_node>1</right_node></_>
          <_>
            <!-- node 1 -->
            <feature>
              <rects>
                <_>
                  7 0 3 7 -1.</_>
                <_>
                  8 0 1 7 3.</_></rects>
              <tilted>0</tilted></feature>
            <threshold>0.0120134903118014</threshold>
            <left_val>0.0859820172190666</left_val>
            <right_val>-0.4415793120861053</right_val></_></_>
        <_>
          <!-- tree 20 -->
          <_>
            <!-- root node -->
            <feature>
              <rects>
                <_>
                  10 1 4 11 -1.</_>
                <_>
                  12 1 2 11 2.</_></rects>
              <tilted>0</tilted></feature>
            <threshold>-0.0217669401317835</threshold>
            <left_node>1</left_node>
            <right_val>-0.1038257032632828</right_val></_>
          <_>
            <!-- node 1 -->
            <feature>
              <rects>
                <_>
                  7 0 9 2 -1.</_>
                <_>
                  10 0 3 2 3.</_></rects>
              <tilted>0</tilted></feature>
            <threshold>0.0191838704049587</threshold>
            <left_val>0.4306254982948303</left_val>
            <right_val>-0.3652186095714569</right_val></_></_></trees>
      <stage_threshold>-1.4827339649200439</stage_threshold>
      <parent>2</parent>
      <next>-1</next></_>
    <_>
      <!-- stage 4 -->
      <trees>
        <_>
          <!-- tree 0 -->
          <_>
            <!-- root node -->
            <feature>
              <rects>
                <_>
                  0 1 15 3 -1.</_>
                <_>
                  5 1 5 3 3.</_></rects>
              <tilted>0</tilted></feature>
            <threshold>-0.1274577975273132</threshold>
            <left_node>1</left_node>
            <right_val>-0.3476546108722687</right_val></_>
          <_>
            <!-- node 1 -->
            <feature>
              <rects>
                <_>
                  3 0 10 4 -1.</_>
                <_>
                  3 2 10 2 2.</_></rects>
              <tilted>0</tilted></feature>
            <threshold>-0.0456979610025883</threshold>
            <left_val>0.8045834898948669</left_val>
            <right_val>-0.3609651029109955</right_val></_></_>
        <_>
          <!-- tree 1 -->
          <_>
            <!-- root node -->
            <feature>
              <rects>
                <_>
                  1 4 2 10 -1.</_>
                <_>
                  2 4 1 10 2.</_></rects>
              <tilted>0</tilted></feature>
            <threshold>-0.0213285293430090</threshold>
            <left_val>0.5020307898521423</left_val>
            <right_node>1</right_node></_>
          <_>
            <!-- node 1 -->
            <feature>
              <rects>
                <_>
                  9 3 6 4 -1.</_>
                <_>
                  11 3 2 4 3.</_></rects>
              <tilted>0</tilted></feature>
            <threshold>-0.0221297405660152</threshold>
            <left_val>0.1934970021247864</left_val>
            <right_val>-0.3905416131019592</right_val></_></_>
        <_>
          <!-- tree 2 -->
          <_>
            <!-- root node -->
            <feature>
              <rects>
                <_>
                  10 0 6 4 -1.</_>
                <_>
                  10 0 3 2 2.</_>
                <_>
                  13 2 3 2 2.</_></rects>
              <tilted>0</tilted></feature>
            <threshold>0.0193708203732967</threshold>
            <left_val>-0.1440335065126419</left_val>
            <right_node>1</right_node></_>
          <_>
            <!-- node 1 -->
            <feature>
              <rects>
                <_>
                  9 1 4 1 -1.</_>
                <_>
                  11 1 2 1 2.</_></rects>
              <tilted>0</tilted></feature>
            <threshold>2.6653020177036524e-03</threshold>
            <left_val>-0.1916445046663284</left_val>
            <right_val>0.5895869135856628</right_val></_></_>
        <_>
          <!-- tree 3 -->
          <_>
            <!-- root node -->
            <feature>
              <rects>
                <_>
                  0 0 4 16 -1.</_>
                <_>
                  0 8 4 8 2.</_></rects>
              <tilted>0</tilted></feature>
            <threshold>-0.1892956048250198</threshold>
            <left_val>-0.5538570284843445</left_val>
            <right_node>1</right_node></_>
          <_>
            <!-- node 1 -->
            <feature>
              <rects>
                <_>
                  3 0 10 3 -1.</_>
                <_>
                  8 0 5 3 2.</_></rects>
              <tilted>0</tilted></feature>
            <threshold>0.0757156088948250</threshold>
            <left_val>0.1161800026893616</left_val>
            <right_val>-0.5657702088356018</right_val></_></_>
        <_>
          <!-- tree 4 -->
          <_>
            <!-- root node -->
            <feature>
              <rects>
                <_>
                  6 15 10 1 -1.</_>
                <_>
                  11 15 5 1 2.</_></rects>
              <tilted>0</tilted></feature>
            <threshold>0.0166540704667568</threshold>
            <left_node>1</left_node>
            <right_val>0.2830143868923187</right_val></_>
          <_>
            <!-- node 1 -->
            <feature>
              <rects>
                <_>
                  1 2 2 9 -1.</_>
                <_>
                  2 2 1 9 2.</_></rects>
              <tilted>0</tilted></feature>
            <threshold>0.0125562995672226</threshold>
            <left_val>-0.2090037018060684</left_val>
            <right_val>0.3758384883403778</right_val></_></_>
        <_>
          <!-- tree 5 -->
          <_>
            <!-- root node -->
            <feature>
              <rects>
                <_>
                  12 3 4 8 -1.</_>
                <_>
                  14 3 2 8 2.</_></rects>
              <tilted>0</tilted></feature>
            <threshold>-0.0272459890693426</threshold>
            <left_val>0.3187164068222046</left_val>
            <right_node>1</right_node></_>
          <_>
            <!-- node 1 -->
            <feature>
              <rects>
                <_>
                  12 6 4 7 -1.</_>
                <_>
                  14 6 2 7 2.</_></rects>
              <tilted>0</tilted></feature>
            <threshold>0.0210226699709892</threshold>
            <left_val>-0.3578157126903534</left_val>
            <right_val>0.1083548963069916</right_val></_></_>
        <_>
          <!-- tree 6 -->
          <_>
            <!-- root node -->
            <feature>
              <rects>
                <_>
                  1 5 12 6 -1.</_>
                <_>
                  1 7 12 2 3.</_></rects>
              <tilted>0</tilted></feature>
            <threshold>-9.9964831024408340e-03</threshold>
            <left_node>1</left_node>
            <right_val>-0.2495176047086716</right_val></_>
          <_>
            <!-- node 1 -->
            <feature>
              <rects>
                <_>
                  1 8 3 3 -1.</_>
                <_>
                  2 8 1 3 3.</_></rects>
              <tilted>0</tilted></feature>
            <threshold>-5.4177371785044670e-03</threshold>
            <left_val>0.4193828999996185</left_val>
            <right_val>-2.9149549081921577e-03</right_val></_></_>
        <_>
          <!-- tree 7 -->
          <_>
            <!-- root node -->
            <feature>
              <rects>
                <_>
                  6 1 7 6 -1.</_>
                <_>
                  6 3 7 2 3.</_></rects>
              <tilted>0</tilted></feature>
            <threshold>-0.0215019807219505</threshold>
            <left_val>0.2026720046997070</left_val>
            <right_node>1</right_node></_>
          <_>
            <!-- node 1 -->
            <feature>
              <rects>
                <_>
                  8 5 2 2 -1.</_>
                <_>
                  8 6 2 1 2.</_></rects>
              <tilted>0</tilted></feature>
            <threshold>-3.1462721381103620e-05</threshold>
            <left_val>4.5867040753364563e-03</left_val>
            <right_val>-0.4164417982101440</right_val></_></_>
        <_>
          <!-- tree 8 -->
          <_>
            <!-- root node -->
            <feature>
              <rects>
                <_>
                  7 0 3 3 -1.</_>
                <_>
                  7 1 3 1 3.</_></rects>
              <tilted>0</tilted></feature>
            <threshold>-4.1349017992615700e-03</threshold>
            <left_val>0.2164900004863739</left_val>
            <right_node>1</right_node></_>
          <_>
            <!-- node 1 -->
            <feature>
              <rects>
                <_>
                  4 0 2 2 -1.</_>
                <_>
                  4 1 2 1 2.</_></rects>
              <tilted>0</tilted></feature>
            <threshold>3.7495770957320929e-03</threshold>
            <left_val>-0.2755047976970673</left_val>
            <right_val>0.2876097857952118</right_val></_></_>
        <_>
          <!-- tree 9 -->
          <_>
            <!-- root node -->
            <feature>
              <rects>
                <_>
                  0 2 9 8 -1.</_>
                <_>
                  3 2 3 8 3.</_></rects>
              <tilted>0</tilted></feature>
            <threshold>-0.0547601692378521</threshold>
            <left_node>1</left_node>
            <right_val>-0.1588605940341949</right_val></_>
          <_>
            <!-- node 1 -->
            <feature>
              <rects>
                <_>
                  2 1 2 6 -1.</_>
                <_>
                  2 4 2 3 2.</_></rects>
              <tilted>0</tilted></feature>
            <threshold>-2.9590809717774391e-03</threshold>
            <left_val>0.3414469063282013</left_val>
            <right_val>-0.2953611910343170</right_val></_></_>
        <_>
          <!-- tree 10 -->
          <_>
            <!-- root node -->
            <feature>
              <rects>
                <_>
                  0 0 1 6 -1.</_>
                <_>
                  0 3 1 3 2.</_></rects>
              <tilted>0</tilted></feature>
            <threshold>-8.3471778780221939e-03</threshold>
            <left_val>-0.3334563076496124</left_val>
            <right_node>1</right_node></_>
          <_>
            <!-- node 1 -->
            <feature>
              <rects>
                <_>
                  0 0 2 2 -1.</_>
                <_>
                  0 1 2 1 2.</_></rects>
              <tilted>0</tilted></feature>
            <threshold>2.0578640978783369e-03</threshold>
            <left_val>0.1982824951410294</left_val>
            <right_val>-0.2568910121917725</right_val></_></_>
        <_>
          <!-- tree 11 -->
          <_>
            <!-- root node -->
            <feature>
              <rects>
                <_>
                  0 10 8 3 -1.</_>
                <_>
                  4 10 4 3 2.</_></rects>
              <tilted>0</tilted></feature>
            <threshold>0.0429384186863899</threshold>
            <left_node>1</left_node>
            <right_val>0.3517008125782013</right_val></_>
          <_>
            <!-- node 1 -->
            <feature>
              <rects>
                <_>
                  9 1 4 2 -1.</_>
                <_>
                  9 1 2 1 2.</_>
                <_>
                  11 2 2 1 2.</_></rects>
              <tilted>0</tilted></feature>
            <threshold>2.4075540713965893e-03</threshold>
            <left_val>-0.2366839945316315</left_val>
            <right_val>0.2071643024682999</right_val></_></_>
        <_>
          <!-- tree 12 -->
          <_>
            <!-- root node -->
            <feature>
              <rects>
                <_>
                  13 0 2 2 -1.</_>
                <_>
                  13 1 2 1 2.</_></rects>
              <tilted>0</tilted></feature>
            <threshold>1.8238429911434650e-03</threshold>
            <left_node>1</left_node>
            <right_val>-0.2761150002479553</right_val></_>
          <_>
            <!-- node 1 -->
            <feature>
              <rects>
                <_>
                  5 1 3 3 -1.</_>
                <_>
                  6 1 1 3 3.</_></rects>
              <tilted>0</tilted></feature>
            <threshold>-9.8248478025197983e-03</threshold>
            <left_val>-0.5573796033859253</left_val>
            <right_val>0.1524544954299927</right_val></_></_>
        <_>
          <!-- tree 13 -->
          <_>
            <!-- root node -->
            <feature>
              <rects>
                <_>
                  12 8 3 3 -1.</_>
                <_>
                  13 8 1 3 3.</_></rects>
              <tilted>0</tilted></feature>
            <threshold>-5.0229961052536964e-03</threshold>
            <left_val>0.2146203070878983</left_val>
            <right_node>1</right_node></_>
          <_>
            <!-- node 1 -->
            <feature>
              <rects>
                <_>
                  10 6 6 9 -1.</_>
                <_>
                  12 6 2 9 3.</_></rects>
              <tilted>0</tilted></feature>
            <threshold>0.0632128864526749</threshold>
            <left_val>-0.2253904044628143</left_val>
            <right_val>0.2899197041988373</right_val></_></_>
        <_>
          <!-- tree 14 -->
          <_>
            <!-- root node -->
            <feature>
              <rects>
                <_>
                  8 1 2 2 -1.</_>
                <_>
                  9 1 1 2 2.</_></rects>
              <tilted>0</tilted></feature>
            <threshold>-2.2222760599106550e-03</threshold>
            <left_val>-0.3007780015468597</left_val>
            <right_node>1</right_node></_>
          <_>
            <!-- node 1 -->
            <feature>
              <rects>
                <_>
                  1 0 1 2 -1.</_>
                <_>
                  1 1 1 1 2.</_></rects>
              <tilted>0</tilted></feature>
            <threshold>-1.4814980095252395e-03</threshold>
            <left_val>-0.2217230051755905</left_val>
            <right_val>0.1688867062330246</right_val></_></_>
        <_>
          <!-- tree 15 -->
          <_>
            <!-- root node -->
            <feature>
              <rects>
                <_>
                  3 1 8 15 -1.</_>
                <_>
                  3 6 8 5 3.</_></rects>
              <tilted>0</tilted></feature>
            <threshold>-0.2131620943546295</threshold>
            <left_val>0.2557618021965027</left_val>
            <right_node>1</right_node></_>
          <_>
            <!-- node 1 -->
            <feature>
              <rects>
                <_>
                  3 6 7 9 -1.</_>
                <_>
                  3 9 7 3 3.</_></rects>
              <tilted>0</tilted></feature>
            <threshold>0.0445429198443890</threshold>
            <left_val>-0.2995420992374420</left_val>
            <right_val>0.1549946069717407</right_val></_></_>
        <_>
          <!-- tree 16 -->
          <_>
            <!-- root node -->
            <feature>
              <rects>
                <_>
                  1 8 12 8 -1.</_>
                <_>
                  5 8 4 8 3.</_></rects>
              <tilted>0</tilted></feature>
            <threshold>-0.0567090101540089</threshold>
            <left_val>0.1892654001712799</left_val>
            <right_node>1</right_node></_>
          <_>
            <!-- node 1 -->
            <feature>
              <rects>
                <_>
                  10 11 6 5 -1.</_>
                <_>
                  12 11 2 5 3.</_></rects>
              <tilted>0</tilted></feature>
            <threshold>-0.0272844191640615</threshold>
            <left_val>0.1269681006669998</left_val>
            <right_val>-0.3171144127845764</right_val></_></_>
        <_>
          <!-- tree 17 -->
          <_>
            <!-- root node -->
            <feature>
              <rects>
                <_>
                  1 5 4 3 -1.</_>
                <_>
                  1 6 4 1 3.</_></rects>
              <tilted>0</tilted></feature>
            <threshold>-0.0116657298058271</threshold>
            <left_val>-0.5674356818199158</left_val>
            <right_node>1</right_node></_>
          <_>
            <!-- node 1 -->
            <feature>
              <rects>
                <_>
                  8 10 3 5 -1.</_>
                <_>
                  9 10 1 5 3.</_></rects>
              <tilted>0</tilted></feature>
            <threshold>-0.0148788299411535</threshold>
            <left_val>-0.6150494217872620</left_val>
            <right_val>0.0775778070092201</right_val></_></_>
        <_>
          <!-- tree 18 -->
          <_>
            <!-- root node -->
            <feature>
              <rects>
                <_>
                  7 11 3 4 -1.</_>
                <_>
                  8 11 1 4 3.</_></rects>
              <tilted>0</tilted></feature>
            <threshold>-0.0109152002260089</threshold>
            <left_val>-0.5371096134185791</left_val>
            <right_node>1</right_node></_>
          <_>
            <!-- node 1 -->
            <feature>
              <rects>
                <_>
                  2 0 4 2 -1.</_>
                <_>
                  2 0 2 1 2.</_>
                <_>
                  4 1 2 1 2.</_></rects>
              <tilted>0</tilted></feature>
            <threshold>9.3503659591078758e-03</threshold>
            <left_val>-0.0147960903123021</left_val>
            <right_val>0.4894241988658905</right_val></_></_>
        <_>
          <!-- tree 19 -->
          <_>
            <!-- root node -->
            <feature>
              <rects>
                <_>
                  2 0 4 2 -1.</_>
                <_>
                  2 0 2 1 2.</_>
                <_>
                  4 1 2 1 2.</_></rects>
              <tilted>0</tilted></feature>
            <threshold>-5.0188950262963772e-03</threshold>
            <left_val>0.2931461036205292</left_val>
            <right_node>1</right_node></_>
          <_>
            <!-- node 1 -->
            <feature>
              <rects>
                <_>
                  3 1 4 2 -1.</_>
                <_>
                  3 1 2 1 2.</_>
                <_>
                  5 2 2 1 2.</_></rects>
              <tilted>0</tilted></feature>
            <threshold>-2.8490629047155380e-03</threshold>
            <left_val>0.1650740057229996</left_val>
            <right_val>-0.2085465937852859</right_val></_></_>
        <_>
          <!-- tree 20 -->
          <_>
            <!-- root node -->
            <feature>
              <rects>
                <_>
                  2 3 3 1 -1.</_>
                <_>
                  3 3 1 1 3.</_></rects>
              <tilted>0</tilted></feature>
            <threshold>-1.0502160148462281e-04</threshold>
            <left_val>0.1515226066112518</left_val>
            <right_node>1</right_node></_>
          <_>
            <!-- node 1 -->
            <feature>
              <rects>
                <_>
                  1 4 3 5 -1.</_>
                <_>
                  2 4 1 5 3.</_></rects>
              <tilted>0</tilted></feature>
            <threshold>3.7528350949287415e-03</threshold>
            <left_val>-0.3043167889118195</left_val>
            <right_val>0.1888940930366516</right_val></_></_>
        <_>
          <!-- tree 21 -->
          <_>
            <!-- root node -->
            <feature>
              <rects>
                <_>
                  1 4 2 3 -1.</_>
                <_>
                  1 5 2 1 3.</_></rects>
              <tilted>0</tilted></feature>
            <threshold>-8.6414134129881859e-03</threshold>
            <left_val>-0.6250476837158203</left_val>
            <right_node>1</right_node></_>
          <_>
            <!-- node 1 -->
            <feature>
              <rects>
                <_>
                  0 4 3 8 -1.</_>
                <_>
                  1 4 1 8 3.</_></rects>
              <tilted>0</tilted></feature>
            <threshold>-0.0113036399707198</threshold>
            <left_val>0.3015187978744507</left_val>
            <right_val>-0.0544877499341965</right_val></_></_>
        <_>
          <!-- tree 22 -->
          <_>
            <!-- root node -->
            <feature>
              <rects>
                <_>
                  13 0 1 2 -1.</_>
                <_>
                  13 1 1 1 2.</_></rects>
              <tilted>0</tilted></feature>
            <threshold>-6.8176531931385398e-04</threshold>
            <left_val>-0.2136339992284775</left_val>
            <right_node>1</right_node></_>
          <_>
            <!-- node 1 -->
            <feature>
              <rects>
                <_>
                  6 1 2 1 -1.</_>
                <_>
                  7 1 1 1 2.</_></rects>
              <tilted>0</tilted></feature>
            <threshold>-3.7032780237495899e-03</threshold>
            <left_val>-0.6006172895431519</left_val>
            <right_val>0.1413964927196503</right_val></_></_>
        <_>
          <!-- tree 23 -->
          <_>
            <!-- root node -->
            <feature>
              <rects>
                <_>
                  12 4 3 1 -1.</_>
                <_>
                  13 4 1 1 3.</_></rects>
              <tilted>0</tilted></feature>
            <threshold>-3.1772819347679615e-03</threshold>
            <left_val>0.2860820889472961</left_val>
            <right_node>1</right_node></_>
          <_>
            <!-- node 1 -->
            <feature>
              <rects>
                <_>
                  12 6 2 10 -1.</_>
                <_>
                  13 6 1 10 2.</_></rects>
              <tilted>0</tilted></feature>
            <threshold>0.0222890991717577</threshold>
            <left_val>-0.1614930033683777</left_val>
            <right_val>0.2407747060060501</right_val></_></_></trees>
      <stage_threshold>-1.4124430418014526</stage_threshold>
      <parent>3</parent>
      <next>-1</next></_>
    <_>
      <!-- stage 5 -->
      <trees>
        <_>
          <!-- tree 0 -->
          <_>
            <!-- root node -->
            <feature>
              <rects>
                <_>
                  4 0 7 2 -1.</_>
                <_>
                  4 1 7 1 2.</_></rects>
              <tilted>0</tilted></feature>
            <threshold>-0.0150478500872850</threshold>
            <left_node>1</left_node>
            <right_val>-0.4028114080429077</right_val></_>
          <_>
            <!-- node 1 -->
            <feature>
              <rects>
                <_>
                  2 1 12 1 -1.</_>
                <_>
                  6 1 4 1 3.</_></rects>
              <tilted>0</tilted></feature>
            <threshold>-0.0152084799483418</threshold>
            <left_val>0.6641461849212646</left_val>
            <right_val>-0.3965888917446136</right_val></_></_>
        <_>
          <!-- tree 1 -->
          <_>
            <!-- root node -->
            <feature>
              <rects>
                <_>
                  1 4 2 6 -1.</_>
                <_>
                  2 4 1 6 2.</_></rects>
              <tilted>0</tilted></feature>
            <threshold>-0.0112864198163152</threshold>
            <left_node>1</left_node>
            <right_val>-0.2097191959619522</right_val></_>
          <_>
            <!-- node 1 -->
            <feature>
              <rects>
                <_>
                  9 1 4 2 -1.</_>
                <_>
                  9 2 4 1 2.</_></rects>
              <tilted>0</tilted></feature>
            <threshold>-4.8657958395779133e-03</threshold>
            <left_val>0.6068016886711121</left_val>
            <right_val>3.9176428690552711e-03</right_val></_></_>
        <_>
          <!-- tree 2 -->
          <_>
            <!-- root node -->
            <feature>
              <rects>
                <_>
                  11 3 4 3 -1.</_>
                <_>
                  13 3 2 3 2.</_></rects>
              <tilted>0</tilted></feature>
            <threshold>0.0278336703777313</threshold>
            <left_node>1</left_node>
            <right_val>0.3286435008049011</right_val></_>
          <_>
            <!-- node 1 -->
            <feature>
              <rects>
                <_>
                  5 0 6 3 -1.</_>
                <_>
                  5 1 6 1 3.</_></rects>
              <tilted>0</tilted></feature>
            <threshold>0.0196014102548361</threshold>
            <left_val>-0.1931111067533493</left_val>
            <right_val>0.3317889869213104</right_val></_></_>
        <_>
          <!-- tree 3 -->
          <_>
            <!-- root node -->
            <feature>
              <rects>
                <_>
                  5 8 9 2 -1.</_>
                <_>
                  5 9 9 1 2.</_></rects>
              <tilted>0</tilted></feature>
            <threshold>9.1987280175089836e-03</threshold>
            <left_node>1</left_node>
            <right_val>0.1783962994813919</right_val></_>
          <_>
            <!-- node 1 -->
            <feature>
              <rects>
                <_>
                  2 1 11 15 -1.</_>
                <_>
                  2 6 11 5 3.</_></rects>
              <tilted>0</tilted></feature>
            <threshold>-0.2445634007453918</threshold>
            <left_val>0.1123716980218887</left_val>
            <right_val>-0.2996121048927307</right_val></_></_>
        <_>
          <!-- tree 4 -->
          <_>
            <!-- root node -->
            <feature>
              <rects>
                <_>
                  9 10 2 4 -1.</_>
                <_>
                  9 12 2 2 2.</_></rects>
              <tilted>0</tilted></feature>
            <threshold>-8.5140556620899588e-05</threshold>
            <left_val>0.1245066002011299</left_val>
            <right_node>1</right_node></_>
          <_>
            <!-- node 1 -->
            <feature>
              <rects>
                <_>
                  1 10 15 4 -1.</_>
                <_>
                  6 10 5 4 3.</_></rects>
              <tilted>0</tilted></feature>
            <threshold>-0.1675086021423340</threshold>
            <left_val>0.2255329042673111</left_val>
            <right_val>-0.3214539885520935</right_val></_></_>
        <_>
          <!-- tree 5 -->
          <_>
            <!-- root node -->
            <feature>
              <rects>
                <_>
                  0 13 9 1 -1.</_>
                <_>
                  3 13 3 1 3.</_></rects>
              <tilted>0</tilted></feature>
            <threshold>-5.4167089983820915e-03</threshold>
            <left_val>0.1714507043361664</left_val>
            <right_node>1</right_node></_>
          <_>
            <!-- node 1 -->
            <feature>
              <rects>
                <_>
                  5 14 6 2 -1.</_>
                <_>
                  7 14 2 2 3.</_></rects>
              <tilted>0</tilted></feature>
            <threshold>-3.5765850916504860e-03</threshold>
            <left_val>0.0542025305330753</left_val>
            <right_val>-0.3479914963245392</right_val></_></_>
        <_>
          <!-- tree 6 -->
          <_>
            <!-- root node -->
            <feature>
              <rects>
                <_>
                  7 12 4 2 -1.</_>
                <_>
                  7 13 4 1 2.</_></rects>
              <tilted>0</tilted></feature>
            <threshold>-0.0133741898462176</threshold>
            <left_val>-0.6452224254608154</left_val>
            <right_node>1</right_node></_>
          <_>
            <!-- node 1 -->
            <feature>
              <rects>
                <_>
                  6 0 4 2 -1.</_>
                <_>
                  8 0 2 2 2.</_></rects>
              <tilted>0</tilted></feature>
            <threshold>0.0144051099196076</threshold>
            <left_val>0.0845857337117195</left_val>
            <right_val>-0.4152882993221283</right_val></_></_>
        <_>
          <!-- tree 7 -->
          <_>
            <!-- root node -->
            <feature>
              <rects>
                <_>
                  14 0 1 2 -1.</_>
                <_>
                  14 1 1 1 2.</_></rects>
              <tilted>0</tilted></feature>
            <threshold>-1.6836050199344754e-03</threshold>
            <left_val>-0.3305939137935638</left_val>
            <right_node>1</right_node></_>
          <_>
            <!-- node 1 -->
            <feature>
              <rects>
                <_>
                  14 0 1 2 -1.</_>
                <_>
                  14 1 1 1 2.</_></rects>
              <tilted>0</tilted></feature>
            <threshold>1.0944020468741655e-03</threshold>
            <left_val>0.1749515980482101</left_val>
            <right_val>-0.2524476051330566</right_val></_></_>
        <_>
          <!-- tree 8 -->
          <_>
            <!-- root node -->
            <feature>
              <rects>
                <_>
                  8 12 8 4 -1.</_>
                <_>
                  8 12 4 2 2.</_>
                <_>
                  12 14 4 2 2.</_></rects>
              <tilted>0</tilted></feature>
            <threshold>0.0129265701398253</threshold>
            <left_node>1</left_node>
            <right_val>0.2096834033727646</right_val></_>
          <_>
            <!-- node 1 -->
            <feature>
              <rects>
                <_>
                  11 9 4 6 -1.</_>
                <_>
                  11 9 2 3 2.</_>
                <_>
                  13 12 2 3 2.</_></rects>
              <tilted>0</tilted></feature>
            <threshold>-9.2436410486698151e-03</threshold>
            <left_val>0.1397829949855804</left_val>
            <right_val>-0.2207327932119370</right_val></_></_>
        <_>
          <!-- tree 9 -->
          <_>
            <!-- root node -->
            <feature>
              <rects>
                <_>
                  0 5 3 4 -1.</_>
                <_>
                  1 5 1 4 3.</_></rects>
              <tilted>0</tilted></feature>
            <threshold>-7.9271765425801277e-03</threshold>
            <left_val>0.2339543998241425</left_val>
            <right_node>1</right_node></_>
          <_>
            <!-- node 1 -->
            <feature>
              <rects>
                <_>
                  3 0 2 4 -1.</_>
                <_>
                  3 0 1 2 2.</_>
                <_>
                  4 2 1 2 2.</_></rects>
              <tilted>0</tilted></feature>
            <threshold>-2.6064158882945776e-03</threshold>
            <left_val>0.1415288001298904</left_val>
            <right_val>-0.2147497981786728</right_val></_></_>
        <_>
          <!-- tree 10 -->
          <_>
            <!-- root node -->
            <feature>
              <rects>
                <_>
                  6 0 4 2 -1.</_>
                <_>
                  8 0 2 2 2.</_></rects>
              <tilted>0</tilted></feature>
            <threshold>-0.0173528492450714</threshold>
            <left_val>-0.5275247097015381</left_val>
            <right_node>1</right_node></_>
          <_>
            <!-- node 1 -->
            <feature>
              <rects>
                <_>
                  3 1 4 2 -1.</_>
                <_>
                  3 1 2 1 2.</_>
                <_>
                  5 2 2 1 2.</_></rects>
              <tilted>0</tilted></feature>
            <threshold>3.5811739508062601e-03</threshold>
            <left_val>-0.0299179702997208</left_val>
            <right_val>0.3176344931125641</right_val></_></_>
        <_>
          <!-- tree 11 -->
          <_>
            <!-- root node -->
            <feature>
              <rects>
                <_>
                  4 0 3 6 -1.</_>
                <_>
                  5 0 1 6 3.</_></rects>
              <tilted>0</tilted></feature>
            <threshold>-0.0197986308485270</threshold>
            <left_val>-0.7049670815467834</left_val>
            <right_node>1</right_node></_>
          <_>
            <!-- node 1 -->
            <feature>
              <rects>
                <_>
                  4 3 3 1 -1.</_>
                <_>
                  5 3 1 1 3.</_></rects>
              <tilted>0</tilted></feature>
            <threshold>-3.2104209822136909e-05</threshold>
            <left_val>0.1689630001783371</left_val>
            <right_val>-0.1388446986675262</right_val></_></_>
        <_>
          <!-- tree 12 -->
          <_>
            <!-- root node -->
            <feature>
              <rects>
                <_>
                  0 1 1 2 -1.</_>
                <_>
                  0 2 1 1 2.</_></rects>
              <tilted>0</tilted></feature>
            <threshold>1.6510180430486798e-03</threshold>
            <left_node>1</left_node>
            <right_val>-0.3125329017639160</right_val></_>
          <_>
            <!-- node 1 -->
            <feature>
              <rects>
                <_>
                  0 1 1 2 -1.</_>
                <_>
                  0 2 1 1 2.</_></rects>
              <tilted>0</tilted></feature>
            <threshold>-1.1218939907848835e-03</threshold>
            <left_val>-0.2279940992593765</left_val>
            <right_val>0.1799789071083069</right_val></_></_>
        <_>
          <!-- tree 13 -->
          <_>
            <!-- root node -->
            <feature>
              <rects>
                <_>
                  4 0 2 2 -1.</_>
                <_>
                  4 1 2 1 2.</_></rects>
              <tilted>0</tilted></feature>
            <threshold>2.3000410292297602e-03</threshold>
            <left_node>1</left_node>
            <right_val>0.2268081009387970</right_val></_>
          <_>
            <!-- node 1 -->
            <feature>
              <rects>
                <_>
                  2 2 2 2 -1.</_>
                <_>
                  2 3 2 1 2.</_></rects>
              <tilted>0</tilted></feature>
            <threshold>-1.0405620560050011e-03</threshold>
            <left_val>0.1026144996285439</left_val>
            <right_val>-0.3472402989864349</right_val></_></_>
        <_>
          <!-- tree 14 -->
          <_>
            <!-- root node -->
            <feature>
              <rects>
                <_>
                  12 5 3 3 -1.</_>
                <_>
                  13 5 1 3 3.</_></rects>
              <tilted>0</tilted></feature>
            <threshold>-6.0613499954342842e-03</threshold>
            <left_val>0.2441200017929077</left_val>
            <right_node>1</right_node></_>
          <_>
            <!-- node 1 -->
            <feature>
              <rects>
                <_>
                  12 1 2 8 -1.</_>
                <_>
                  12 1 1 4 2.</_>
                <_>
                  13 5 1 4 2.</_></rects>
              <tilted>0</tilted></feature>
            <threshold>5.2434760145843029e-03</threshold>
            <left_val>-0.2509985864162445</left_val>
            <right_val>0.0930959135293961</right_val></_></_>
        <_>
          <!-- tree 15 -->
          <_>
            <!-- root node -->
            <feature>
              <rects>
                <_>
                  3 10 1 6 -1.</_>
                <_>
                  3 13 1 3 2.</_></rects>
              <tilted>0</tilted></feature>
            <threshold>0.0171936992555857</threshold>
            <left_node>1</left_node>
            <right_val>0.3388049900531769</right_val></_>
          <_>
            <!-- node 1 -->
            <feature>
              <rects>
                <_>
                  2 5 12 7 -1.</_>
                <_>
                  8 5 6 7 2.</_></rects>
              <tilted>0</tilted></feature>
            <threshold>0.3219788968563080</threshold>
            <left_val>-0.0988277271389961</left_val>
            <right_val>0.6615548729896545</right_val></_></_>
        <_>
          <!-- tree 16 -->
          <_>
            <!-- root node -->
            <feature>
              <rects>
                <_>
                  8 0 6 2 -1.</_>
                <_>
                  8 0 3 1 2.</_>
                <_>
                  11 1 3 1 2.</_></rects>
              <tilted>0</tilted></feature>
            <threshold>5.6068492121994495e-03</threshold>
            <left_node>1</left_node>
            <right_val>0.2109248936176300</right_val></_>
          <_>
            <!-- node 1 -->
            <feature>
              <rects>
                <_>
                  10 1 4 2 -1.</_>
                <_>
                  10 1 2 1 2.</_>
                <_>
                  12 2 2 1 2.</_></rects>
              <tilted>0</tilted></feature>
            <threshold>-6.5432409755885601e-03</threshold>
            <left_val>0.4484806954860687</left_val>
            <right_val>-0.1637136042118073</right_val></_></_>
        <_>
          <!-- tree 17 -->
          <_>
            <!-- root node -->
            <feature>
              <rects>
                <_>
                  4 1 4 12 -1.</_>
                <_>
                  4 7 4 6 2.</_></rects>
              <tilted>0</tilted></feature>
            <threshold>0.1062617972493172</threshold>
            <left_node>1</left_node>
            <right_val>0.3384568095207214</right_val></_>
          <_>
            <!-- node 1 -->
            <feature>
              <rects>
                <_>
                  1 1 8 2 -1.</_>
                <_>
                  1 1 4 1 2.</_>
                <_>
                  5 2 4 1 2.</_></rects>
              <tilted>0</tilted></feature>
            <threshold>-8.8795293122529984e-03</threshold>
            <left_val>0.1703258007764816</left_val>
            <right_val>-0.1685090065002441</right_val></_></_>
        <_>
          <!-- tree 18 -->
          <_>
            <!-- root node -->
            <feature>
              <rects>
                <_>
                  8 6 1 2 -1.</_>
                <_>
                  8 7 1 1 2.</_></rects>
              <tilted>0</tilted></feature>
            <threshold>-3.2104209822136909e-05</threshold>
            <left_val>0.1297876983880997</left_val>
            <right_node>1</right_node></_>
          <_>
            <!-- node 1 -->
            <feature>
              <rects>
                <_>
                  9 1 2 6 -1.</_>
                <_>
                  9 3 2 2 3.</_></rects>
              <tilted>0</tilted></feature>
            <threshold>-2.6254039257764816e-03</threshold>
            <left_val>4.9152169376611710e-03</left_val>
            <right_val>-0.3838104903697968</right_val></_></_>
        <_>
          <!-- tree 19 -->
          <_>
            <!-- root node -->
            <feature>
              <rects>
                <_>
                  9 13 6 3 -1.</_>
                <_>
                  11 13 2 3 3.</_></rects>
              <tilted>0</tilted></feature>
            <threshold>-8.4935277700424194e-03</threshold>
            <left_val>0.1714162975549698</left_val>
            <right_node>1</right_node></_>
          <_>
            <!-- node 1 -->
            <feature>
              <rects>
                <_>
                  13 5 3 11 -1.</_>
                <_>
                  14 5 1 11 3.</_></rects>
              <tilted>0</tilted></feature>
            <threshold>-0.0184596497565508</threshold>
            <left_val>0.2066245973110199</left_val>
            <right_val>-0.2219741046428680</right_val></_></_>
        <_>
          <!-- tree 20 -->
          <_>
            <!-- root node -->
            <feature>
              <rects>
                <_>
                  1 3 3 7 -1.</_>
                <_>
                  2 3 1 7 3.</_></rects>
              <tilted>0</tilted></feature>
            <threshold>-0.0145139498636127</threshold>
            <left_val>0.2355595976114273</left_val>
            <right_node>1</right_node></_>
          <_>
            <!-- node 1 -->
            <feature>
              <rects>
                <_>
                  1 0 1 2 -1.</_>
                <_>
                  1 1 1 1 2.</_></rects>
              <tilted>0</tilted></feature>
            <threshold>1.0905320523306727e-03</threshold>
            <left_val>-4.6956590376794338e-03</left_val>
            <right_val>-0.3726165890693665</right_val></_></_>
        <_>
          <!-- tree 21 -->
          <_>
            <!-- root node -->
            <feature>
              <rects>
                <_>
                  6 0 3 12 -1.</_>
                <_>
                  7 0 1 12 3.</_></rects>
              <tilted>0</tilted></feature>
            <threshold>-0.0241166204214096</threshold>
            <left_val>-0.6316484212875366</left_val>
            <right_node>1</right_node></_>
          <_>
            <!-- node 1 -->
            <feature>
              <rects>
                <_>
                  9 13 4 3 -1.</_>
                <_>
                  11 13 2 3 2.</_></rects>
              <tilted>0</tilted></feature>
            <threshold>0.0119564095512033</threshold>
            <left_val>-0.0645940601825714</left_val>
            <right_val>0.2436541020870209</right_val></_></_>
        <_>
          <!-- tree 22 -->
          <_>
            <!-- root node -->
            <feature>
              <rects>
                <_>
                  9 0 3 15 -1.</_>
                <_>
                  10 0 1 15 3.</_></rects>
              <tilted>0</tilted></feature>
            <threshold>-0.0405994988977909</threshold>
            <left_val>-0.7433797121047974</left_val>
            <right_node>1</right_node></_>
          <_>
            <!-- node 1 -->
            <feature>
              <rects>
                <_>
                  11 11 3 4 -1.</_>
                <_>
                  11 13 3 2 2.</_></rects>
              <tilted>0</tilted></feature>
            <threshold>-5.8026518672704697e-03</threshold>
            <left_val>0.2303940951824188</left_val>
            <right_val>-0.0771845579147339</right_val></_></_>
        <_>
          <!-- tree 23 -->
          <_>
            <!-- root node -->
            <feature>
              <rects>
                <_>
                  12 4 1 2 -1.</_>
                <_>
                  12 5 1 1 2.</_></rects>
              <tilted>0</tilted></feature>
            <threshold>-3.2049949368229136e-05</threshold>
            <left_node>1</left_node>
            <right_val>-0.1630381941795349</right_val></_>
          <_>
            <!-- node 1 -->
            <feature>
              <rects>
                <_>
                  11 3 1 3 -1.</_>
                <_>
                  11 4 1 1 3.</_></rects>
              <tilted>0</tilted></feature>
            <threshold>1.3852469855919480e-03</threshold>
            <left_val>0.2184541970491409</left_val>
            <right_val>-0.2817552089691162</right_val></_></_>
        <_>
          <!-- tree 24 -->
          <_>
            <!-- root node -->
            <feature>
              <rects>
                <_>
                  0 14 6 2 -1.</_>
                <_>
                  0 14 3 1 2.</_>
                <_>
                  3 15 3 1 2.</_></rects>
              <tilted>0</tilted></feature>
            <threshold>4.1436091996729374e-03</threshold>
            <left_node>1</left_node>
            <right_val>0.2135306000709534</right_val></_>
          <_>
            <!-- node 1 -->
            <feature>
              <rects>
                <_>
                  3 8 3 6 -1.</_>
                <_>
                  3 10 3 2 3.</_></rects>
              <tilted>0</tilted></feature>
            <threshold>0.0111206099390984</threshold>
            <left_val>-0.1880796998739243</left_val>
            <right_val>0.1342947930097580</right_val></_></_>
        <_>
          <!-- tree 25 -->
          <_>
            <!-- root node -->
            <feature>
              <rects>
                <_>
                  2 3 11 12 -1.</_>
                <_>
                  2 9 11 6 2.</_></rects>
              <tilted>0</tilted></feature>
            <threshold>-0.4622829854488373</threshold>
            <left_val>0.9148697257041931</left_val>
            <right_node>1</right_node></_>
          <_>
            <!-- node 1 -->
            <feature>
              <rects>
                <_>
                  1 7 4 8 -1.</_>
                <_>
                  1 7 2 4 2.</_>
                <_>
                  3 11 2 4 2.</_></rects>
              <tilted>0</tilted></feature>
            <threshold>0.0177073199301958</threshold>
            <left_val>-0.1099774986505508</left_val>
            <right_val>0.2097492963075638</right_val></_></_>
        <_>
          <!-- tree 26 -->
          <_>
            <!-- root node -->
            <feature>
              <rects>
                <_>
                  10 1 4 4 -1.</_>
                <_>
                  10 1 2 2 2.</_>
                <_>
                  12 3 2 2 2.</_></rects>
              <tilted>0</tilted></feature>
            <threshold>-0.0102472202852368</threshold>
            <left_node>1</left_node>
            <right_val>-0.0676084682345390</right_val></_>
          <_>
            <!-- node 1 -->
            <feature>
              <rects>
                <_>
                  11 1 1 3 -1.</_>
                <_>
                  11 2 1 1 3.</_></rects>
              <tilted>0</tilted></feature>
            <threshold>-6.1146460939198732e-04</threshold>
            <left_val>0.4416049122810364</left_val>
            <right_val>-0.1544128954410553</right_val></_></_>
        <_>
          <!-- tree 27 -->
          <_>
            <!-- root node -->
            <feature>
              <rects>
                <_>
                  10 4 6 11 -1.</_>
                <_>
                  12 4 2 11 3.</_></rects>
              <tilted>0</tilted></feature>
            <threshold>0.0734773278236389</threshold>
            <left_node>1</left_node>
            <right_val>0.3054260909557343</right_val></_>
          <_>
            <!-- node 1 -->
            <feature>
              <rects>
                <_>
                  12 7 3 4 -1.</_>
                <_>
                  13 7 1 4 3.</_></rects>
              <tilted>0</tilted></feature>
            <threshold>-2.6279930025339127e-03</threshold>
            <left_val>0.0841822400689125</left_val>
            <right_val>-0.2028436958789825</right_val></_></_>
        <_>
          <!-- tree 28 -->
          <_>
            <!-- root node -->
            <feature>
              <rects>
                <_>
                  14 0 2 2 -1.</_>
                <_>
                  15 0 1 2 2.</_></rects>
              <tilted>0</tilted></feature>
            <threshold>-1.4997289981693029e-03</threshold>
            <left_val>-0.2266992926597595</left_val>
            <right_node>1</right_node></_>
          <_>
            <!-- node 1 -->
            <feature>
              <rects>
                <_>
                  14 0 2 2 -1.</_>
                <_>
                  15 0 1 2 2.</_></rects>
              <tilted>0</tilted></feature>
            <threshold>-3.5084729461232200e-05</threshold>
            <left_val>0.3501465022563934</left_val>
            <right_val>-0.0114903301000595</right_val></_></_>
        <_>
          <!-- tree 29 -->
          <_>
            <!-- root node -->
            <feature>
              <rects>
                <_>
                  10 9 1 4 -1.</_>
                <_>
                  10 11 1 2 2.</_></rects>
              <tilted>0</tilted></feature>
            <threshold>-0.0126157002523541</threshold>
            <left_val>-0.7497531175613403</left_val>
            <right_node>1</right_node></_>
          <_>
            <!-- node 1 -->
            <feature>
              <rects>
                <_>
                  5 3 5 6 -1.</_>
                <_>
                  5 5 5 2 3.</_></rects>
              <tilted>0</tilted></feature>
            <threshold>-0.0118591496720910</threshold>
            <left_val>0.2213879972696304</left_val>
            <right_val>-0.0733243376016617</right_val></_></_>
        <_>
          <!-- tree 30 -->
          <_>
            <!-- root node -->
            <feature>
              <rects>
                <_>
                  7 2 1 3 -1.</_>
                <_>
                  7 3 1 1 3.</_></rects>
              <tilted>0</tilted></feature>
            <threshold>-7.1988280978985131e-05</threshold>
            <left_val>0.1155275031924248</left_val>
            <right_node>1</right_node></_>
          <_>
            <!-- node 1 -->
            <feature>
              <rects>
                <_>
                  3 4 9 12 -1.</_>
                <_>
                  3 8 9 4 3.</_></rects>
              <tilted>0</tilted></feature>
            <threshold>-0.0927621722221375</threshold>
            <left_val>0.1323473006486893</left_val>
            <right_val>-0.2853518128395081</right_val></_></_></trees>
      <stage_threshold>-1.3043659925460815</stage_threshold>
      <parent>4</parent>
      <next>-1</next></_>
    <_>
      <!-- stage 6 -->
      <trees>
        <_>
          <!-- tree 0 -->
          <_>
            <!-- root node -->
            <feature>
              <rects>
                <_>
                  4 0 5 2 -1.</_>
                <_>
                  4 1 5 1 2.</_></rects>
              <tilted>0</tilted></feature>
            <threshold>-8.9158434420824051e-03</threshold>
            <left_node>1</left_node>
            <right_val>-0.4241260886192322</right_val></_>
          <_>
            <!-- node 1 -->
            <feature>
              <rects>
                <_>
                  2 1 8 1 -1.</_>
                <_>
                  6 1 4 1 2.</_></rects>
              <tilted>0</tilted></feature>
            <threshold>2.3400878999382257e-03</threshold>
            <left_val>0.6049389839172363</left_val>
            <right_val>-0.5697566270828247</right_val></_></_>
        <_>
          <!-- tree 1 -->
          <_>
            <!-- root node -->
            <feature>
              <rects>
                <_>
                  10 2 4 1 -1.</_>
                <_>
                  12 2 2 1 2.</_></rects>
              <tilted>0</tilted></feature>
